<?xml version="1.0"?>
<opencv_storage>
<cascade>
  <stageType>BOOST</stageType>
  <featureType>HOG</featureType>
  <height>40</height>
  <width>40</width>
  <stageParams>
    <boostType>RAB</boostType>
    <minHitRate>9.9500000476837158e-01</minHitRate>
    <maxFalseAlarm>5.0000000000000000e-01</maxFalseAlarm>
    <weightTrimRate>9.4999999999999996e-01</weightTrimRate>
    <maxDepth>1</maxDepth>
    <maxWeakCount>100</maxWeakCount></stageParams>
  <featureParams>
    <maxCatCount>0</maxCatCount>
    <featSize>36</featSize></featureParams>
  <stageNum>3</stageNum>
  <stages>
    <!-- stage 0 -->
    <_>
      <maxWeakCount>22</maxWeakCount>
      <stageThreshold>-1.4609832763671875e+00</stageThreshold>
      <weakClassifiers>
        <_>
          <internalNodes>
            0 -1 32 3.2451033592224121e-02</internalNodes>
          <leafValues>
            -1.5897232294082642e-01 1.0004200935363770e+00</leafValues></_>
        <_>
          <internalNodes>
            0 -1 60 3.4307371824979782e-02</internalNodes>
          <leafValues>
            -3.0329766869544983e-01 6.5052407979965210e-01</leafValues></_>
        <_>
          <internalNodes>
            0 -1 17 1.6399960964918137e-02</internalNodes>
          <leafValues>
            3.0111172795295715e-01 -4.2542576789855957e-01</leafValues></_>
        <_>
          <internalNodes>
            0 -1 52 5.1358364522457123e-02</internalNodes>
          <leafValues>
            -1.8095676600933075e-01 7.1712291240692139e-01</leafValues></_>
        <_>
          <internalNodes>
            0 -1 14 1.2713412754237652e-02</internalNodes>
          <leafValues>
            2.9463496804237366e-01 -3.1774663925170898e-01</leafValues></_>
        <_>
          <internalNodes>
            0 -1 64 5.7302422821521759e-02</internalNodes>
          <leafValues>
            1.0848157852888107e-01 -1.2290685176849365e+00</leafValues></_>
        <_>
          <internalNodes>
            0 -1 77 3.7246700376272202e-02</internalNodes>
          <leafValues>
            -1.3476969301700592e-01 5.6322234869003296e-01</leafValues></_>
        <_>
          <internalNodes>
            0 -1 8 2.0062401890754700e-02</internalNodes>
          <leafValues>
            2.4527406692504883e-01 -2.6493129134178162e-01</leafValues></_>
        <_>
          <internalNodes>
            0 -1 70 2.6660032570362091e-02</internalNodes>
          <leafValues>
            -2.3770759999752045e-01 2.7531024813652039e-01</leafValues></_>
        <_>
          <internalNodes>
            0 -1 47 5.4423406720161438e-02</internalNodes>
          <leafValues>
            -1.2935943901538849e-01 4.7694963216781616e-01</leafValues></_>
        <_>
          <internalNodes>
            0 -1 24 1.2970524840056896e-02</internalNodes>
          <leafValues>
            2.4366185069084167e-01 -2.5179859995841980e-01</leafValues></_>
        <_>
          <internalNodes>
            0 -1 4 1.3694907538592815e-02</internalNodes>
          <leafValues>
            1.9801065325737000e-01 -2.4681501090526581e-01</leafValues></_>
        <_>
          <internalNodes>
            0 -1 51 2.9031230136752129e-02</internalNodes>
          <leafValues>
            -1.3539165258407593e-01 3.3226677775382996e-01</leafValues></_>
        <_>
          <internalNodes>
            0 -1 26 7.3279030621051788e-02</internalNodes>
          <leafValues>
            7.3025129735469818e-02 -9.0286386013031006e-01</leafValues></_>
        <_>
          <internalNodes>
            0 -1 21 1.5018321573734283e-02</internalNodes>
          <leafValues>
            1.7492596805095673e-01 -2.2007955610752106e-01</leafValues></_>
        <_>
          <internalNodes>
            0 -1 72 8.9296154677867889e-02</internalNodes>
          <leafValues>
            4.4256426393985748e-02 -1.1466749906539917e+00</leafValues></_>
        <_>
          <internalNodes>
            0 -1 38 3.8975492119789124e-02</internalNodes>
          <leafValues>
            -9.4593696296215057e-02 4.8827666044235229e-01</leafValues></_>
        <_>
          <internalNodes>
            0 -1 29 1.1701229214668274e-01</internalNodes>
          <leafValues>
            4.4682264328002930e-02 -1.2726308107376099e+00</leafValues></_>
        <_>
          <internalNodes>
            0 -1 27 4.0425013750791550e-02</internalNodes>
          <leafValues>
            -8.9091576635837555e-02 3.9578488469123840e-01</leafValues></_>
        <_>
          <internalNodes>
            0 -1 25 7.0470511913299561e-02</internalNodes>
          <leafValues>
            -6.0348507016897202e-02 6.6243427991867065e-01</leafValues></_>
        <_>
          <internalNodes>
            0 -1 30 5.6654870510101318e-02</internalNodes>
          <leafValues>
            -1.1649633198976517e-01 3.6607545614242554e-01</leafValues></_>
        <_>
          <internalNodes>
            0 -1 2 5.3669448941946030e-02</internalNodes>
          <leafValues>
            -6.5174624323844910e-02 7.1630060672760010e-01</leafValues></_></weakClassifiers></_>
    <!-- stage 1 -->
    <_>
      <maxWeakCount>33</maxWeakCount>
      <stageThreshold>-1.4734771251678467e+00</stageThreshold>
      <weakClassifiers>
        <_>
          <internalNodes>
            0 -1 63 1.9816856831312180e-02</internalNodes>
          <leafValues>
            -2.1915021538734436e-01 7.4828398227691650e-01</leafValues></_>
        <_>
          <internalNodes>
            0 -1 78 2.5143381208181381e-02</internalNodes>
          <leafValues>
            -3.2743597030639648e-01 4.7412404417991638e-01</leafValues></_>
        <_>
          <internalNodes>
            0 -1 60 3.5324707627296448e-02</internalNodes>
          <leafValues>
            -2.6766467094421387e-01 5.3891599178314209e-01</leafValues></_>
        <_>
          <internalNodes>
            0 -1 34 2.6691887527704239e-02</internalNodes>
          <leafValues>
            -2.8593605756759644e-01 3.8870054483413696e-01</leafValues></_>
        <_>
          <internalNodes>
            0 -1 68 3.2024517655372620e-02</internalNodes>
          <leafValues>
            -2.6988527178764343e-01 3.0988350510597229e-01</leafValues></_>
        <_>
          <internalNodes>
            0 -1 77 2.0998569205403328e-02</internalNodes>
          <leafValues>
            -2.8756174445152283e-01 2.6732042431831360e-01</leafValues></_>
        <_>
          <internalNodes>
            0 -1 41 3.6026448011398315e-02</internalNodes>
          <leafValues>
            -1.8285398185253143e-01 4.3399417400360107e-01</leafValues></_>
        <_>
          <internalNodes>
            0 -1 28 4.5268103480339050e-02</internalNodes>
          <leafValues>
            -1.2561565637588501e-01 5.8609664440155029e-01</leafValues></_>
        <_>
          <internalNodes>
            0 -1 37 4.4493272900581360e-02</internalNodes>
          <leafValues>
            -1.4197227358818054e-01 4.9601495265960693e-01</leafValues></_>
        <_>
          <internalNodes>
            0 -1 53 1.0870285332202911e-02</internalNodes>
          <leafValues>
            2.8767061233520508e-01 -2.2246113419532776e-01</leafValues></_>
        <_>
          <internalNodes>
            0 -1 75 3.4699529409408569e-02</internalNodes>
          <leafValues>
            -2.1952955424785614e-01 2.7417048811912537e-01</leafValues></_>
        <_>
          <internalNodes>
            0 -1 62 4.9376413226127625e-02</internalNodes>
          <leafValues>
            7.8090906143188477e-02 -7.7849489450454712e-01</leafValues></_>
        <_>
          <internalNodes>
            0 -1 18 2.8192102909088135e-02</internalNodes>
          <leafValues>
            1.7233984172344208e-01 -2.8093084692955017e-01</leafValues></_>
        <_>
          <internalNodes>
            0 -1 71 7.1659117937088013e-02</internalNodes>
          <leafValues>
            6.1061982065439224e-02 -7.9361766576766968e-01</leafValues></_>
        <_>
          <internalNodes>
            0 -1 16 5.0076432526111603e-02</internalNodes>
          <leafValues>
            -7.2327755391597748e-02 5.6946265697479248e-01</leafValues></_>
        <_>
          <internalNodes>
            0 -1 19 6.8203234113752842e-03</internalNodes>
          <leafValues>
            2.7232217788696289e-01 -1.4828984439373016e-01</leafValues></_>
        <_>
          <internalNodes>
            0 -1 74 9.8501697182655334e-02</internalNodes>
          <leafValues>
            4.3372340500354767e-02 -9.4159519672393799e-01</leafValues></_>
        <_>
          <internalNodes>
            0 -1 31 4.0312528610229492e-02</internalNodes>
          <leafValues>
            -9.6653893589973450e-02 3.8272473216056824e-01</leafValues></_>
        <_>
          <internalNodes>
            0 -1 50 3.7680827081203461e-02</internalNodes>
          <leafValues>
            -9.5240481197834015e-02 3.7469649314880371e-01</leafValues></_>
        <_>
          <internalNodes>
            0 -1 76 2.3358874022960663e-02</internalNodes>
          <leafValues>
            -1.6503518819808960e-01 2.3444524407386780e-01</leafValues></_>
        <_>
          <internalNodes>
            0 -1 55 2.1588977426290512e-02</internalNodes>
          <leafValues>
            -1.7831817269325256e-01 1.8738727271556854e-01</leafValues></_>
        <_>
          <internalNodes>
            0 -1 5 1.5849906951189041e-02</internalNodes>
          <leafValues>
            1.4687156677246094e-01 -2.0654459297657013e-01</leafValues></_>
        <_>
          <internalNodes>
            0 -1 59 4.5599363744258881e-02</internalNodes>
          <leafValues>
            -8.1748001277446747e-02 3.9287737011909485e-01</leafValues></_>
        <_>
          <internalNodes>
            0 -1 49 4.5942336320877075e-02</internalNodes>
          <leafValues>
            -1.0203421860933304e-01 2.7837637066841125e-01</leafValues></_>
        <_>
          <internalNodes>
            0 -1 4 1.2138787657022476e-02</internalNodes>
          <leafValues>
            1.5989384055137634e-01 -1.9095386564731598e-01</leafValues></_>
        <_>
          <internalNodes>
            0 -1 69 1.2425845861434937e-01</internalNodes>
          <leafValues>
            3.3622596412897110e-02 -1.6327471733093262e+00</leafValues></_>
        <_>
          <internalNodes>
            0 -1 46 1.4569556713104248e-01</internalNodes>
          <leafValues>
            3.8155920803546906e-02 -1.0861332416534424e+00</leafValues></_>
        <_>
          <internalNodes>
            0 -1 73 1.0479139536619186e-01</internalNodes>
          <leafValues>
            4.4842626899480820e-02 -8.6825925111770630e-01</leafValues></_>
        <_>
          <internalNodes>
            0 -1 7 3.2406372483819723e-03</internalNodes>
          <leafValues>
            3.2484576106071472e-01 -9.6558175981044769e-02</leafValues></_>
        <_>
          <internalNodes>
            0 -1 15 4.8017226159572601e-02</internalNodes>
          <leafValues>
            -8.8585600256919861e-02 3.2226639986038208e-01</leafValues></_>
        <_>
          <internalNodes>
            0 -1 43 5.0367075949907303e-02</internalNodes>
          <leafValues>
            -5.4601632058620453e-02 6.2813436985015869e-01</leafValues></_>
        <_>
          <internalNodes>
            0 -1 44 9.1108337044715881e-02</internalNodes>
          <leafValues>
            -3.2307300716638565e-02 1.0296709537506104e+00</leafValues></_>
        <_>
          <internalNodes>
            0 -1 23 1.1623226106166840e-02</internalNodes>
          <leafValues>
            1.8011817336082458e-01 -1.4753790199756622e-01</leafValues></_></weakClassifiers></_>
    <!-- stage 2 -->
    <_>
      <maxWeakCount>35</maxWeakCount>
      <stageThreshold>-1.3747789859771729e+00</stageThreshold>
      <weakClassifiers>
        <_>
          <internalNodes>
            0 -1 79 1.0108709335327148e-02</internalNodes>
          <leafValues>
            -6.6158461570739746e-01 5.1089733839035034e-01</leafValues></_>
        <_>
          <internalNodes>
            0 -1 67 2.5932069867849350e-02</internalNodes>
          <leafValues>
            -3.9997330307960510e-01 4.3047592043876648e-01</leafValues></_>
        <_>
          <internalNodes>
            0 -1 58 3.4876674413681030e-02</internalNodes>
          <leafValues>
            -2.1763379871845245e-01 4.8012727499008179e-01</leafValues></_>
        <_>
          <internalNodes>
            0 -1 42 4.5650847256183624e-02</internalNodes>
          <leafValues>
            -1.7573843896389008e-01 4.3543496727943420e-01</leafValues></_>
        <_>
          <internalNodes>
            0 -1 28 5.1267728209495544e-02</internalNodes>
          <leafValues>
            -1.2643232941627502e-01 6.8333333730697632e-01</leafValues></_>
        <_>
          <internalNodes>
            0 -1 51 2.8402213007211685e-02</internalNodes>
          <leafValues>
            -2.1627210080623627e-01 3.5793149471282959e-01</leafValues></_>
        <_>
          <internalNodes>
            0 -1 44 3.7927970290184021e-02</internalNodes>
          <leafValues>
            -6.8054705858230591e-02 5.4179495573043823e-01</leafValues></_>
        <_>
          <internalNodes>
            0 -1 48 4.3781246989965439e-02</internalNodes>
          <leafValues>
            -1.5504097938537598e-01 3.4214058518409729e-01</leafValues></_>
        <_>
          <internalNodes>
            0 -1 40 4.3656729161739349e-02</internalNodes>
          <leafValues>
            -1.3446761667728424e-01 4.9533280730247498e-01</leafValues></_>
        <_>
          <internalNodes>
            0 -1 45 9.8854273557662964e-02</internalNodes>
          <leafValues>
            5.3055640310049057e-02 -9.9428403377532959e-01</leafValues></_>
        <_>
          <internalNodes>
            0 -1 65 2.9152218252420425e-02</internalNodes>
          <leafValues>
            -1.8371732532978058e-01 2.5891664624214172e-01</leafValues></_>
        <_>
          <internalNodes>
            0 -1 12 7.8256525099277496e-02</internalNodes>
          <leafValues>
            -6.2249038368463516e-02 8.6658781766891479e-01</leafValues></_>
        <_>
          <internalNodes>
            0 -1 47 4.2618669569492340e-02</internalNodes>
          <leafValues>
            -1.4409033954143524e-01 2.6040747761726379e-01</leafValues></_>
        <_>
          <internalNodes>
            0 -1 36 3.6812208592891693e-02</internalNodes>
          <leafValues>
            -9.2552870512008667e-02 4.0241405367851257e-01</leafValues></_>
        <_>
          <internalNodes>
            0 -1 39 3.6949343979358673e-02</internalNodes>
          <leafValues>
            -9.9187657237052917e-02 4.0029215812683105e-01</leafValues></_>
        <_>
          <internalNodes>
            0 -1 79 1.0134771466255188e-02</internalNodes>
          <leafValues>
            3.8651621341705322e-01 -1.0108201950788498e-01</leafValues></_>
        <_>
          <internalNodes>
            0 -1 57 8.6438544094562531e-03</internalNodes>
          <leafValues>
            -3.0707734823226929e-01 1.0799153149127960e-01</leafValues></_>
        <_>
          <internalNodes>
            0 -1 0 2.5507815182209015e-02</internalNodes>
          <leafValues>
            1.8474890291690826e-01 -1.7966145277023315e-01</leafValues></_>
        <_>
          <internalNodes>
            0 -1 54 1.5037250518798828e-01</internalNodes>
          <leafValues>
            4.3004270642995834e-02 -1.5761241912841797e+00</leafValues></_>
        <_>
          <internalNodes>
            0 -1 10 2.3043453693389893e-03</internalNodes>
          <leafValues>
            3.7956583499908447e-01 -9.1419830918312073e-02</leafValues></_>
        <_>
          <internalNodes>
            0 -1 61 7.7866762876510620e-02</internalNodes>
          <leafValues>
            5.5415283888578415e-02 -6.3004040718078613e-01</leafValues></_>
        <_>
          <internalNodes>
            0 -1 61 1.3402659446001053e-02</internalNodes>
          <leafValues>
            -3.0994066596031189e-01 1.3645946979522705e-01</leafValues></_>
        <_>
          <internalNodes>
            0 -1 33 3.7760619074106216e-02</internalNodes>
          <leafValues>
            -1.5033647418022156e-01 1.9001944363117218e-01</leafValues></_>
        <_>
          <internalNodes>
            0 -1 56 3.7419743835926056e-02</internalNodes>
          <leafValues>
            -8.3482682704925537e-02 3.5218510031700134e-01</leafValues></_>
        <_>
          <internalNodes>
            0 -1 41 1.4567220583558083e-02</internalNodes>
          <leafValues>
            -2.6844614744186401e-01 1.0900692641735077e-01</leafValues></_>
        <_>
          <internalNodes>
            0 -1 9 2.9444519430398941e-02</internalNodes>
          <leafValues>
            1.3286986947059631e-01 -2.2803869843482971e-01</leafValues></_>
        <_>
          <internalNodes>
            0 -1 1 5.3782863542437553e-03</internalNodes>
          <leafValues>
            2.7301803231239319e-01 -1.0553261637687683e-01</leafValues></_>
        <_>
          <internalNodes>
            0 -1 20 1.7294012010097504e-02</internalNodes>
          <leafValues>
            1.1194033175706863e-01 -2.3542726039886475e-01</leafValues></_>
        <_>
          <internalNodes>
            0 -1 22 9.1752037405967712e-03</internalNodes>
          <leafValues>
            3.2016631960868835e-01 -8.3559051156044006e-02</leafValues></_>
        <_>
          <internalNodes>
            0 -1 6 1.6874963045120239e-01</internalNodes>
          <leafValues>
            2.8778050094842911e-02 -1.0680961608886719e+00</leafValues></_>
        <_>
          <internalNodes>
            0 -1 13 6.0024052858352661e-02</internalNodes>
          <leafValues>
            -6.4483709633350372e-02 3.4415292739868164e-01</leafValues></_>
        <_>
          <internalNodes>
            0 -1 66 9.6692137420177460e-02</internalNodes>
          <leafValues>
            2.7056047692894936e-02 -1.4939365386962891e+00</leafValues></_>
        <_>
          <internalNodes>
            0 -1 3 5.7272613048553467e-02</internalNodes>
          <leafValues>
            -6.8970635533332825e-02 3.9056587219238281e-01</leafValues></_>
        <_>
          <internalNodes>
            0 -1 11 3.2538175582885742e-03</internalNodes>
          <leafValues>
            2.4409410357475281e-01 -9.9560871720314026e-02</leafValues></_>
        <_>
          <internalNodes>
            0 -1 35 1.6792230308055878e-01</internalNodes>
          <leafValues>
            2.8558701276779175e-02 -1.2525867223739624e+00</leafValues></_></weakClassifiers></_></stages>
  <features>
    <_>
      <rect>
        0 0 8 8 4</rect></_>
    <_>
      <rect>
        0 0 8 8 5</rect></_>
    <_>
      <rect>
        0 20 8 8 18</rect></_>
    <_>
      <rect>
        0 24 8 8 5</rect></_>
    <_>
      <rect>
        0 24 8 8 20</rect></_>
    <_>
      <rect>
        4 0 8 8 17</rect></_>
    <_>
      <rect>
        4 0 8 8 30</rect></_>
    <_>
      <rect>
        4 4 8 8 15</rect></_>
    <_>
      <rect>
        4 12 8 8 31</rect></_>
    <_>
      <rect>
        4 16 8 8 31</rect></_>
    <_>
      <rect>
        4 20 8 8 14</rect></_>
    <_>
      <rect>
        8 0 8 8 16</rect></_>
    <_>
      <rect>
        8 8 8 8 15</rect></_>
    <_>
      <rect>
        8 20 8 8 23</rect></_>
    <_>
      <rect>
        8 24 8 8 34</rect></_>
    <_>
      <rect>
        12 4 8 8 15</rect></_>
    <_>
      <rect>
        12 20 8 8 7</rect></_>
    <_>
      <rect>
        16 4 8 8 8</rect></_>
    <_>
      <rect>
        16 4 8 8 22</rect></_>
    <_>
      <rect>
        16 16 8 8 23</rect></_>
    <_>
      <rect>
        16 24 8 8 25</rect></_>
    <_>
      <rect>
        20 20 8 8 24</rect></_>
    <_>
      <rect>
        24 0 8 8 13</rect></_>
    <_>
      <rect>
        24 0 8 8 29</rect></_>
    <_>
      <rect>
        24 24 8 8 33</rect></_>
    <_>
      <rect>
        0 0 8 16 6</rect></_>
    <_>
      <rect>
        0 0 8 16 20</rect></_>
    <_>
      <rect>
        0 4 8 16 1</rect></_>
    <_>
      <rect>
        0 8 8 16 6</rect></_>
    <_>
      <rect>
        0 8 8 16 22</rect></_>
    <_>
      <rect>
        4 8 8 16 3</rect></_>
    <_>
      <rect>
        4 8 8 16 23</rect></_>
    <_>
      <rect>
        8 0 8 16 1</rect></_>
    <_>
      <rect>
        8 0 8 16 3</rect></_>
    <_>
      <rect>
        8 4 8 16 24</rect></_>
    <_>
      <rect>
        12 0 8 16 4</rect></_>
    <_>
      <rect>
        12 0 8 16 24</rect></_>
    <_>
      <rect>
        12 4 8 16 1</rect></_>
    <_>
      <rect>
        12 4 8 16 27</rect></_>
    <_>
      <rect>
        16 0 8 16 16</rect></_>
    <_>
      <rect>
        16 0 8 16 27</rect></_>
    <_>
      <rect>
        16 4 8 16 14</rect></_>
    <_>
      <rect>
        16 4 8 16 15</rect></_>
    <_>
      <rect>
        24 0 8 16 0</rect></_>
    <_>
      <rect>
        24 0 8 16 10</rect></_>
    <_>
      <rect>
        24 0 8 16 26</rect></_>
    <_>
      <rect>
        24 4 8 16 13</rect></_>
    <_>
      <rect>
        24 8 8 16 12</rect></_>
    <_>
      <rect>
        0 0 16 8 12</rect></_>
    <_>
      <rect>
        0 16 16 8 3</rect></_>
    <_>
      <rect>
        0 20 16 8 0</rect></_>
    <_>
      <rect>
        0 20 16 8 1</rect></_>
    <_>
      <rect>
        0 24 16 8 6</rect></_>
    <_>
      <rect>
        0 24 16 8 34</rect></_>
    <_>
      <rect>
        4 0 16 8 2</rect></_>
    <_>
      <rect>
        4 24 16 8 12</rect></_>
    <_>
      <rect>
        4 24 16 8 14</rect></_>
    <_>
      <rect>
        4 24 16 8 30</rect></_>
    <_>
      <rect>
        8 20 16 8 10</rect></_>
    <_>
      <rect>
        8 20 16 8 15</rect></_>
    <_>
      <rect>
        8 24 16 8 10</rect></_>
    <_>
      <rect>
        0 0 16 16 26</rect></_>
    <_>
      <rect>
        0 0 16 16 29</rect></_>
    <_>
      <rect>
        0 4 16 16 0</rect></_>
    <_>
      <rect>
        0 4 16 16 29</rect></_>
    <_>
      <rect>
        0 8 16 16 8</rect></_>
    <_>
      <rect>
        0 8 16 16 23</rect></_>
    <_>
      <rect>
        4 0 16 16 1</rect></_>
    <_>
      <rect>
        4 0 16 16 3</rect></_>
    <_>
      <rect>
        4 0 16 16 11</rect></_>
    <_>
      <rect>
        4 4 16 16 15</rect></_>
    <_>
      <rect>
        4 8 16 16 26</rect></_>
    <_>
      <rect>
        4 8 16 16 35</rect></_>
    <_>
      <rect>
        8 0 16 16 17</rect></_>
    <_>
      <rect>
        8 0 16 16 35</rect></_>
    <_>
      <rect>
        8 4 16 16 12</rect></_>
    <_>
      <rect>
        8 8 16 16 9</rect></_>
    <_>
      <rect>
        8 8 16 16 10</rect></_>
    <_>
      <rect>
        8 8 16 16 16</rect></_>
    <_>
      <rect>
        8 8 16 16 17</rect></_></features></cascade>
</opencv_storage>
